AWS	-0.9265156,-1.3464527,0.4228804,-1.2150892,0.23467356,-1.1739879,-1.1328977,-0.9569106,2.10596,0.37879777,-0.037946023,-0.03391888,0.68018514,0.30610958,-2.1619046,-0.33662605
SageMaker	0.8942615,0.08697183,0.2924964,1.8564955,-0.8140887,0.308488,-2.7474773,-0.29127607,0.44345236,0.30352265,1.4254895,0.24720229,1.1860656,-0.14306936,0.42813465,-1.88591
-	-0.6032676,0.72738296,-0.44731286,-1.7306114,1.3114424,-1.1946638,0.21296307,0.16557318,-0.2406133,-0.37071678,0.42548242,0.24270879,-0.95734334,1.2417907,0.2552399,0.6353965
XGBoost	1.7209147,1.4974864,-2.141597,-1.0548931,0.25898558,-0.53903204,-1.5543277,-0.5003988,1.0918734,-0.16334745,0.22616807,-0.45996314,-0.67263716,0.016455729,-0.53391945,0.928526
Content	-0.4591349,-1.8567644,1.5774491,0.99881613,-0.16680738,0.06552183,-0.517853,0.77977276,-0.46833673,0.30663666,-0.43231243,2.2237487,0.6414611,0.22748172,0.40791896,0.4828801
Prepared	0.2672193,-1.3926088,1.2937882,-0.21334748,0.22253338,-1.2809529,0.5680039,-0.15373954,1.1148777,2.0118165,-1.350864,-0.7100622,0.7283821,-1.1534038,0.4898506,1.1143805
By	-1.3211113,0.58439374,-0.41956007,0.18616594,0.20121801,0.17336969,0.2390134,1.1850634,0.17135276,1.3520625,1.5788339,-0.97966695,0.44151717,0.32755256,-1.1432791,0.32230687
Chandra	-0.5838478,0.01788711,-1.4573143,1.7001628,0.083834134,-0.60530245,-0.88543195,-0.8558543,-1.8008528,0.46683505,1.8736569,2.2322614,-0.268278,1.2383052,0.083313495,-1.1392294
Lingam	-0.061444227,1.4965034,0.44612303,-0.34012264,-1.5999265,0.45022473,-1.9667965,0.42054033,-0.96789986,-0.20763564,-0.11449392,-0.45944926,-0.18226784,-1.7449131,-1.2149446,-1.3104645
Cloud	0.5733164,1.4991233,-1.4319009,-1.3794281,0.23836946,-0.9015035,0.24204557,-0.68201756,-0.3151523,0.80317724,0.21059938,0.3067781,-0.98858017,-0.7483194,-0.20278104,1.4629058
Wave	0.97837985,0.75265044,-0.012265625,0.633103,-0.98363346,0.90142363,0.62521905,0.6200588,0.4859112,0.14112797,1.3088593,0.50994307,-0.49602666,0.054849587,-1.523428,-0.9204975
LLC	1.172147,0.4593341,-0.49171957,0.4135258,1.9447751,0.5562868,-0.45507404,0.07869004,-1.0415474,0.21158399,-1.799442,-1.8146888,0.5198734,0.9443355,-0.25101182,-0.029835466
Copyright	0.25941887,0.20144777,-0.86993927,-0.55080366,-0.72650814,-0.08693921,1.3693702,-0.38237256,0.86685395,0.2360712,0.20706147,0.56202966,-1.7704777,-1.5852582,-0.29241347,0.89868414
©	0.42141294,0.63751733,0.13690712,-0.33782843,-1.778826,-2.1018326,-0.78534263,-0.7262001,2.184778,-0.48463187,0.18316069,1.3815744,0.49380046,1.0192868,0.51160276,0.1501049
2019	-0.4815286,-1.6312383,0.49119583,-0.5309386,-2.7163775,0.5309148,0.972415,-0.25537124,-1.099556,2.3475683,0.51208186,-0.9281439,-0.79796404,-1.5766131,0.31396884,1.2987877
Cloud	0.5733164,1.4991233,-1.4319009,-1.3794281,0.23836946,-0.9015035,0.24204557,-0.68201756,-0.3151523,0.80317724,0.21059938,0.3067781,-0.98858017,-0.7483194,-0.20278104,1.4629058
Wave	0.97837985,0.75265044,-0.012265625,0.633103,-0.98363346,0.90142363,0.62521905,0.6200588,0.4859112,0.14112797,1.3088593,0.50994307,-0.49602666,0.054849587,-1.523428,-0.9204975
LLC	1.172147,0.4593341,-0.49171957,0.4135258,1.9447751,0.5562868,-0.45507404,0.07869004,-1.0415474,0.21158399,-1.799442,-1.8146888,0.5198734,0.9443355,-0.25101182,-0.029835466
All	-1.421228,-1.3165259,-0.37613004,1.6868045,-0.9654002,-0.07528999,0.55023926,-0.27240455,2.1263938,0.5218889,2.523026,-1.4753916,0.48998293,1.205574,-0.9311556,2.5124414
Rights	-0.7113742,1.974852,-0.3780585,1.7990439,-0.4657634,0.75652206,1.6146047,-1.3264152,-0.19033052,-0.4814047,1.2608192,0.42555138,-0.85630655,0.2995696,-0.56823677,2.4815521
Reserved	0.46787503,-0.30013132,-0.90825766,0.23613262,0.5004424,1.8728013,0.055234533,-2.5435505,0.25334957,1.5365638,-0.37668672,-0.5495934,-1.7072572,-0.073725596,-0.99150836,0.12532929
All	-1.421228,-1.3165259,-0.37613004,1.6868045,-0.9654002,-0.07528999,0.55023926,-0.27240455,2.1263938,0.5218889,2.523026,-1.4753916,0.48998293,1.205574,-0.9311556,2.5124414
other	1.356259,-1.4082316,1.4241494,-1.2396802,-0.64369994,0.37591034,-0.6114218,-0.64939547,2.1452415,0.09805581,-1.1511838,0.68154556,0.13303843,1.5461347,0.6525304,-0.04705477
registered	0.2997238,0.1362705,-0.5991773,-0.9575639,-0.45521212,0.5147355,0.29241458,-0.15949237,-1.6518236,1.1954118,-0.45519367,-0.2576706,1.1025503,-1.0843852,0.76128715,1.0180954
trademarks	1.1580302,-0.4051795,0.5438771,0.6147634,-0.6293867,0.47325873,-0.5362108,0.6792557,0.10819719,1.4020877,1.1820122,-1.2722317,0.16093443,-1.2249253,-0.57966775,2.0679448
and/or	0.5606745,0.10266102,1.097959,-1.5953994,1.0921698,-0.9471006,0.6495398,2.1132581,-1.5910325,0.65950316,1.6446801,1.2830094,-2.645538,-1.3378854,-1.5472195,-0.09727434
copyright	0.9316733,0.62136316,-0.85818964,1.4090648,-0.15516205,-0.1174367,-1.481521,0.92069703,0.7942483,-0.10639552,-2.53767,1.8480929,0.15903029,0.7567804,1.0586694,0.62231904
material	0.2991603,-0.11758339,-0.14282276,-0.41209063,-0.6127048,2.5062325,0.3383707,-0.9257785,2.0215085,0.5112829,2.780184,-0.4558628,0.46402174,0.00034472952,1.0973189,1.0577909
are	0.041454773,0.27195808,0.44929126,-0.08667709,0.45965752,-0.2780005,0.6312975,0.5505109,-1.2799296,-0.34099835,0.21666911,-0.4713041,-0.96235204,-0.6029649,1.1169773,-1.5155523
of	-1.1543951,0.5323426,-0.72937834,-0.5781622,0.09573415,0.46352723,-0.7985465,-1.3955536,-0.945969,0.6599864,0.30288354,0.8063087,-0.17170422,0.6964959,-0.59550077,0.5424483
their	-0.32788843,0.30432963,-0.050361518,0.10403581,0.3945133,-1.3976147,1.2080597,2.0596454,0.15733153,-0.652779,0.7589961,-0.12893417,-0.61396587,0.33590987,0.46713534,-0.389802
respective	-0.2110355,2.0808592,0.8447109,-0.4865698,0.17621349,-1.5466983,-0.07785313,-0.39338475,1.2793682,-1.1850932,0.2234689,1.1650081,-1.038047,1.3569485,0.04682935,-1.1697488
owners	-1.675563,-0.17307791,-0.08428328,-0.4592508,1.3118885,-0.77489,0.60628694,-0.22323039,-1.1004491,-0.4520685,-0.8745091,-1.2847636,-1.5701964,-1.0953879,-1.1983361,-0.58009243
Algorithms	0.62131214,1.8929864,0.4315898,-0.2628838,-1.4230754,1.1713903,0.8027907,-0.30924398,1.1497655,1.1456006,0.20639257,1.1213404,0.54566133,-0.37984926,0.29527995,-0.3598003
Overview	-1.5259693,0.030253226,0.25165763,-1.2104702,-0.25550926,1.7198585,1.019262,1.4354627,1.2658197,-1.5017612,0.035323843,-0.59098685,-0.30603886,1.015254,0.361317,1.5126485
Algorithm	1.5904406,-0.0906018,0.7019368,1.8190999,0.8160807,1.4596189,-0.33867085,0.27440092,-0.84097123,-1.2143915,0.7279767,1.4240818,-1.237679,-2.1315289,0.16488066,0.76920396
Description	-1.5602969,0.34696856,-2.4872427,2.4183307,-0.9687199,0.888088,1.0689625,1.4554589,0.26180115,1.4711773,1.5657032,-0.8886919,1.004717,-0.6363742,1.9051039,1.0847641
Linear	-1.3842772,-0.30851445,-0.15507986,0.55926543,2.4140186,-0.15924284,0.9258018,-1.9181634,0.18240698,0.03285966,0.6784193,0.4900918,0.5128614,0.48554534,-2.2128847,-2.4446745
Models	-0.49121788,0.89262545,-0.6808683,1.1049668,-1.1562428,1.0104005,1.0427979,0.03909844,-0.08891605,0.48689616,-1.3841866,0.75902903,-0.86945075,0.74390465,-1.6917276,-0.19889759
+	-0.9332373,0.8636745,0.6289381,-0.29879388,-0.4652389,-1.3734646,0.045321852,-1.0413575,1.0022599,0.7535935,0.5396597,1.1346436,0.6752649,-1.0084757,-1.7110065,0.49838448
Simple	0.78029525,-1.1959801,-1.4591082,-0.15857577,-0.4291412,-1.6149088,-1.2732519,0.65241545,-0.7478925,0.8135736,-0.14546199,-0.8986305,0.8471212,0.12355274,-0.5797912,0.968641
and	0.9394328,1.8381343,0.20330572,0.40107068,-0.0094795395,-0.00019930331,-1.3009421,-0.5101325,-0.97718793,-0.2619965,0.8134755,0.113497354,0.9108733,0.041878313,-3.0347805,-0.77579355
easy	0.88604385,-1.0095941,-1.0849328,1.5502237,0.67060685,-0.8097793,-1.1770606,-1.2097738,-0.59131557,0.56278014,-1.0735158,0.09115535,1.3307679,0.1433366,-0.38291478,0.11792506
to	-0.31876087,-0.6160546,3.0769994,-1.1480231,0.23322646,-0.32492784,1.7030697,-0.9056865,-0.0013420446,1.5951965,0.005193603,0.982592,0.33761996,0.71021336,0.22295661,-0.6505704
understand	-0.30889478,0.39536908,0.47550973,-0.22893842,-1.2765903,-0.77798337,0.905015,-0.45535815,0.25013778,-0.05871025,0.17882769,1.1307278,0.7074687,0.39317334,-0.78088427,-1.473841
+	-0.9332373,0.8636745,0.6289381,-0.29879388,-0.4652389,-1.3734646,0.045321852,-1.0413575,1.0022599,0.7535935,0.5396597,1.1346436,0.6752649,-1.0084757,-1.7110065,0.49838448
Performs	1.1128837,-0.87142587,0.9391919,1.1400151,1.7466671,-1.0155264,2.304127,-0.9802421,1.7153442,1.8592402,0.55466366,-1.0347493,-0.6846578,1.7382811,-1.2986473,-1.2148212
surprisingly	-1.1052556,-0.49874696,0.06500091,0.8298979,0.8870863,-1.1536845,0.6216603,0.46943453,0.12087727,0.74300086,0.5387751,0.34738573,-0.4852209,0.45357373,-0.14403664,1.8992529
well	0.7196645,0.2632348,-0.65965307,1.2579855,0.7316763,0.13205184,-1.8988962,-1.252021,-1.2716521,2.3964963,1.1003152,-0.47652367,0.70668316,1.0185173,0.37033793,-1.0819006
for	-0.086303964,-0.3658368,0.6136887,0.8804669,0.1478771,-0.15671529,-1.0283278,0.43290263,0.3243379,1.9749067,-0.2799996,0.76150113,-0.7524098,0.040565647,-0.5790191,0.9114611
a	-1.6066637,0.0580928,1.1171691,0.39173314,-0.5625808,0.0313971,-0.25304902,-1.482868,1.124479,-1.0541166,-0.14859545,-0.6418046,-0.21723457,1.2620081,-0.53165996,-1.3156325
variety	-0.21706147,0.16992265,1.81914,1.9380425,-0.9513532,-0.07133886,1.0575179,1.3955795,-0.34123135,0.9356297,-0.3866614,-0.09433533,-2.4410381,0.7998185,-0.41977823,0.33046463
of	-1.1543951,0.5323426,-0.72937834,-0.5781622,0.09573415,0.46352723,-0.7985465,-1.3955536,-0.945969,0.6599864,0.30288354,0.8063087,-0.17170422,0.6964959,-0.59550077,0.5424483
problems	-0.3322181,0.22980921,0.91102135,-0.7778513,-0.107120715,-0.93744683,0.30315855,2.2061715,-0.62223786,1.6020731,-0.083959006,-0.5023402,0.038092304,0.950779,1.1022705,0.34894782
-	-0.6032676,0.72738296,-0.44731286,-1.7306114,1.3114424,-1.1946638,0.21296307,0.16557318,-0.2406133,-0.37071678,0.42548242,0.24270879,-0.95734334,1.2417907,0.2552399,0.6353965
Difficulty	0.15564273,0.23582922,0.007455036,0.583988,-0.13874984,1.1560013,0.5597692,0.27567133,0.8098067,0.7582822,0.8068061,-0.20004836,0.32804462,0.21842709,1.269875,-0.59438014
handling	0.28406265,-0.74584186,-0.07458016,1.0263579,0.11321266,0.47578368,-1.5046216,2.0208642,1.1442578,-2.2620609,0.91724163,-1.1722648,0.65708995,1.0314915,-0.59649163,-0.53429306
non-linear	-0.25858903,0.33467704,-1.1747985,1.0219454,0.023089625,0.6129964,2.265606,0.18009803,-0.79193896,-0.2298897,0.5917119,3.7946126,0.52040833,-0.17602506,-0.013411748,1.5585521
datasets	-0.013493993,-1.4794996,-0.663204,-1.818966,0.106565215,-2.9289482,-1.1630702,0.024869503,0.5084501,0.49299526,0.96188974,0.32477802,0.29211742,-0.5645532,0.5733119,0.55111927
-	-0.6032676,0.72738296,-0.44731286,-1.7306114,1.3114424,-1.1946638,0.21296307,0.16557318,-0.2406133,-0.37071678,0.42548242,0.24270879,-0.95734334,1.2417907,0.2552399,0.6353965
Features	-1.4639693,1.5967968,-0.29380363,2.5638974,0.015007392,-1.3681613,-0.47521433,-0.65777725,0.28209174,-0.008035336,-0.73237336,0.6097315,-0.57173145,-0.9778655,-0.04991462,0.024969112
on	-0.6507311,-0.16122137,-0.3498972,1.6777656,0.5849124,0.19891821,-0.32517108,-0.67510206,-0.12596844,0.59609556,0.2736328,-0.62248963,1.2476046,0.31493497,1.951331,-0.91016865
similar	0.41330823,0.31056544,-1.474925,1.345146,0.23692559,-0.94504255,-1.7576449,-0.24335043,-0.9228552,0.45566782,-0.98103756,0.17789136,0.22861521,-0.33859974,1.088736,-0.37917826
scale	-0.05720602,-1.0408196,-0.3878924,0.29447502,-1.9552317,2.0472252,0.89683354,-0.7140868,1.0929856,0.60583943,-1.9662039,0.5378284,0.091749705,0.93287694,-1.1491437,-0.3510784
one-hot	-1.0304508,-0.61486125,1.8448024,0.42245394,0.67092353,-1.020597,-1.4941589,0.12969162,0.9409536,-0.38970575,2.1310642,-0.6020538,0.13136636,-1.6822716,0.38040257,0.017290387
encoding	-1.3766441,-1.2856951,1.6212683,2.173908,-0.91413844,-0.84901774,-1.365718,0.543387,-0.6294854,0.017304525,0.15405142,-0.7129698,0.22239551,1.0278257,-1.1041031,1.5357164
complex	-1.6591827,-0.8392674,-0.28242478,0.6990381,-0.13086869,1.0108765,0.030997379,0.09633782,-1.3318905,0.80133855,0.4886889,0.10743856,1.1105051,-1.3976095,0.33667946,-1.2367808
features	0.37929377,-0.02723732,0.10952609,0.92964727,1.2866434,0.4788974,0.065978035,0.24311799,-0.0018107225,-2.6209974,0.87475836,0.5309242,-2.3067489,-0.86612725,-1.0754594,-2.125638
Decision	-0.0027814726,-0.7373154,0.44509608,0.0679907,2.099261,-0.14730021,-0.92997473,-0.48638016,0.2866282,-1.1724762,1.8800117,-0.8945754,0.43802547,1.2214899,-1.119722,-0.40809458
Tree	-0.16604823,-1.6678529,-0.17414507,0.38074818,-0.3786433,0.8808636,0.20316121,0.5675136,0.42943496,-0.3607679,0.21934332,0.4486206,-1.6282676,-0.45046774,1.7127888,0.26871207
+	-0.9332373,0.8636745,0.6289381,-0.29879388,-0.4652389,-1.3734646,0.045321852,-1.0413575,1.0022599,0.7535935,0.5396597,1.1346436,0.6752649,-1.0084757,-1.7110065,0.49838448
Can	-0.5001491,-0.6146897,-0.15179388,-0.5929483,-0.78486145,1.4656695,-0.36647868,-0.69801164,0.16712698,-0.29392713,0.29688227,-0.41516206,-0.34154138,-0.2981471,-0.9061808,2.140124
Handle	1.5165384,1.7475836,0.6739954,1.4871312,0.42212614,0.92802083,-0.61937565,0.2541782,3.669942,-0.25338316,0.7609576,0.02215561,1.5400597,0.6405545,0.25885636,0.09555554
Complex	0.33387905,1.3814338,-0.18078506,-0.286427,-0.84301066,-0.5703372,0.34432483,-1.3661206,0.7996043,-0.5629391,-0.6064949,-1.7382325,0.28529602,-0.30136788,-0.9712434,-1.1233187
non-linear	-0.25858903,0.33467704,-1.1747985,1.0219454,0.023089625,0.6129964,2.265606,0.18009803,-0.79193896,-0.2298897,0.5917119,3.7946126,0.52040833,-0.17602506,-0.013411748,1.5585521
relationship	-1.5013729,-0.5200669,-0.7400031,-0.9704724,-1.8458723,-1.9732894,-1.0597446,0.74028325,-0.13469617,0.874328,-0.49387503,0.048848957,0.4418592,0.80570364,-1.5711629,0.023975108
+	-0.9332373,0.8636745,0.6289381,-0.29879388,-0.4652389,-1.3734646,0.045321852,-1.0413575,1.0022599,0.7535935,0.5396597,1.1346436,0.6752649,-1.0084757,-1.7110065,0.49838448
Easily	-1.079708,1.4987254,-1.1141002,-0.8061066,0.5018655,0.6881784,0.15485497,-0.99452645,-0.6550653,-0.79569995,0.16785014,-1.3385599,0.55579454,0.7929739,0.54378664,-2.411466
handles	0.5185902,0.5577035,-0.97582364,-1.2620972,0.9790963,-2.0160835,-1.017492,-0.965599,-1.4043788,-1.6179616,0.10242035,-1.3949082,-0.22430056,-1.2891572,1.2535539,0.76499635
numeric	-0.7123236,1.3966317,1.4380407,-0.98187405,-0.29565135,0.27600613,-0.18496093,-0.57008827,-0.9988046,0.44889954,0.6171942,0.48864034,-0.59387904,-0.4128209,1.2341497,-0.3020916
categorical	-0.37789384,0.19318086,0.5240513,1.4722883,0.061446317,-1.215056,-0.691239,0.4995689,-0.15221526,-0.15035069,-1.7654401,1.0543516,-0.7113193,-0.74657404,0.85863644,0.73897153
data	0.06164984,-0.08711081,0.16195874,1.0261813,-1.0675511,1.0544444,1.1531801,0.0038696416,0.32538614,-1.2968304,-0.6126964,0.07826964,-1.4148175,0.410566,-0.67373955,-0.22464585
missing	1.0965718,-1.1621689,0.6221003,-0.89709,0.23080017,-1.4537896,0.55120915,0.2515529,-0.15439446,-1.6961459,-1.3730167,0.504064,-0.8587018,0.0378258,-0.26700157,-0.44218862
data	0.06164984,-0.08711081,0.16195874,1.0261813,-1.0675511,1.0544444,1.1531801,0.0038696416,0.32538614,-1.2968304,-0.6126964,0.07826964,-1.4148175,0.410566,-0.67373955,-0.22464585
-	-0.6032676,0.72738296,-0.44731286,-1.7306114,1.3114424,-1.1946638,0.21296307,0.16557318,-0.2406133,-0.37071678,0.42548242,0.24270879,-0.95734334,1.2417907,0.2552399,0.6353965
Prone	-0.117627524,1.2582549,0.94990045,0.4421173,-1.1680254,0.0856759,-0.9536338,0.25093657,0.39124006,-1.0025462,-3.4658723,-1.097147,-0.34510714,-0.2137942,-0.9570228,-0.12327356
to	-0.31876087,-0.6160546,3.0769994,-1.1480231,0.23322646,-0.32492784,1.7030697,-0.9056865,-0.0013420446,1.5951965,0.005193603,0.982592,0.33761996,0.71021336,0.22295661,-0.6505704
overfitting	-0.086696096,0.0057624565,-0.7380184,-0.17221242,-0.9743503,-0.6100839,0.3807489,-0.4620086,0.02270803,-2.4572668,-0.38330406,1.6433253,2.4854407,-0.21153335,0.22527052,0.48853546
-	-0.6032676,0.72738296,-0.44731286,-1.7306114,1.3114424,-1.1946638,0.21296307,0.16557318,-0.2406133,-0.37071678,0.42548242,0.24270879,-0.95734334,1.2417907,0.2552399,0.6353965
Poor	-0.65536225,0.6469256,-1.0698404,0.49300313,-1.5490221,-1.3037705,0.811214,0.6460871,-0.5350162,0.13201146,0.20781045,-1.7931737,-0.049966596,-0.92409045,-0.4958918,-0.34586114
predictive	-0.08767937,0.35715306,0.30772302,-0.72876567,0.154643,0.04936621,-0.29831904,-0.43283942,-1.6971903,-0.72487646,-0.3394672,-0.0063664233,0.4049016,-1.6371827,-0.21351567,-0.84655654
accuracy	1.3083076,-0.42072433,0.08899942,-0.9661889,-0.7252654,0.9685982,0.9826078,-0.012408291,0.51274055,-1.2342426,-0.4998347,-1.0848358,-1.503807,-2.334875,0.2088084,2.0014374
Ensemble	1.7159678,-0.8260141,-1.11842,0.18438633,-0.43936977,2.0964444,1.9774468,-1.1834064,-0.5991244,-0.166381,1.5260953,1.0123868,0.49840793,0.76913095,-0.48271126,-1.2473994
Methods	0.9769496,-1.2494856,-1.1351035,-1.1225464,-0.5885121,-1.2327336,1.2157487,0.18194494,-0.3646752,-0.05347473,0.4290005,-0.6797207,-0.3460518,1.0638771,-0.38559973,-0.3675984
+	-0.9332373,0.8636745,0.6289381,-0.29879388,-0.4652389,-1.3734646,0.045321852,-1.0413575,1.0022599,0.7535935,0.5396597,1.1346436,0.6752649,-1.0084757,-1.7110065,0.49838448
Combines	0.5613754,1.7714667,-1.384706,1.118831,1.3107722,0.09535866,-0.27470452,1.9379555,-0.6890577,-0.6482017,0.5130363,0.14504531,1.0448579,0.29676735,1.2755811,-0.38722113
multiple	0.4266929,-0.025606627,-0.6118692,0.74612546,-0.7572718,1.7652752,1.0259693,0.16456942,1.8116146,0.09428519,-0.27007198,-1.0311065,0.55492264,-0.72900015,-0.048790403,0.6126951
simple	-0.6583659,-0.39953232,1.6025795,0.34631506,-0.8131084,0.042126875,0.50110215,-0.5746391,0.37409168,-0.9174814,0.66987294,-0.6992507,0.5929909,-0.08308466,0.3102078,-0.751946
decision	0.7844727,0.2700527,0.25007108,-0.62935835,-1.3131627,0.75741607,-0.02305538,-0.23744139,0.21070513,-0.3858038,1.2077371,-0.5419623,-0.079256386,0.9230746,-3.0741727,-1.2070717
trees	0.2655954,0.52797765,-0.4541508,-0.09035846,-0.89303356,0.46430618,-0.12583153,-0.38870135,0.2405712,-0.31464267,0.17080551,-0.964971,-0.47299144,-0.2149072,0.2542478,-0.26142475
+	-0.9332373,0.8636745,0.6289381,-0.29879388,-0.4652389,-1.3734646,0.045321852,-1.0413575,1.0022599,0.7535935,0.5396597,1.1346436,0.6752649,-1.0084757,-1.7110065,0.49838448
Addresses	0.34566736,-0.8776911,-0.8080119,0.12844902,0.20643006,0.41123298,-2.264582,-0.59160435,-1.3348856,0.8841427,0.6993178,-1.1922771,1.2377025,0.19788504,-0.09424181,2.1005368
decision	0.7844727,0.2700527,0.25007108,-0.62935835,-1.3131627,0.75741607,-0.02305538,-0.23744139,0.21070513,-0.3858038,1.2077371,-0.5419623,-0.079256386,0.9230746,-3.0741727,-1.2070717
tree	1.5763514,0.7044559,-0.8864789,0.854538,-1.2751852,-0.9966006,-0.5922621,0.3793449,0.729791,-0.055727523,-0.8521856,-0.11452731,0.34480152,-0.4629683,0.8268062,1.0472547
overfitting	-0.086696096,0.0057624565,-0.7380184,-0.17221242,-0.9743503,-0.6100839,0.3807489,-0.4620086,0.02270803,-2.4572668,-0.38330406,1.6433253,2.4854407,-0.21153335,0.22527052,0.48853546
problem	0.4553972,-1.8825837,-0.043374855,1.4957328,0.8272771,-1.1794666,-2.349566,1.7511525,0.32852322,0.60429615,-0.14091976,-0.8240186,1.352344,0.5913653,0.22698079,-0.65855664
+	-0.9332373,0.8636745,0.6289381,-0.29879388,-0.4652389,-1.3734646,0.045321852,-1.0413575,1.0022599,0.7535935,0.5396597,1.1346436,0.6752649,-1.0084757,-1.7110065,0.49838448
Much	1.4933722,-0.37088498,-0.6644304,-1.1873931,1.6632997,-0.5764316,-1.641854,-0.08080171,1.204143,-0.04316557,0.33798438,1.8541261,1.876559,-0.4177487,0.4528921,1.2270328
better	-0.23443471,-0.06560645,1.3674097,-0.52622795,0.4247116,1.0208542,0.16217184,-0.19916922,-0.14175002,-1.2198917,-0.8491223,0.85110587,-0.76684266,0.87756085,0.05310479,-1.8894117
predictive	-0.08767937,0.35715306,0.30772302,-0.72876567,0.154643,0.04936621,-0.29831904,-0.43283942,-1.6971903,-0.72487646,-0.3394672,-0.0063664233,0.4049016,-1.6371827,-0.21351567,-0.84655654
performance	0.46724078,0.69999444,-0.100377694,0.91470927,0.49728063,-0.2564456,-0.21848072,0.626897,-0.7318461,-0.6090277,0.19104101,1.1865155,0.024786722,-1.3211719,1.4281796,-0.47189367
-	-0.6032676,0.72738296,-0.44731286,-1.7306114,1.3114424,-1.1946638,0.21296307,0.16557318,-0.2406133,-0.37071678,0.42548242,0.24270879,-0.95734334,1.2417907,0.2552399,0.6353965
More	0.49353305,0.04151162,0.21625975,1.4560411,0.72208595,0.38109946,-0.020195903,1.2338296,-0.32837704,0.4009551,0.33104768,-0.95526904,-1.1338096,0.027471108,-2.154741,-3.1899958
complex	-1.6591827,-0.8392674,-0.28242478,0.6990381,-0.13086869,1.0108765,0.030997379,0.09633782,-1.3318905,0.80133855,0.4886889,0.10743856,1.1105051,-1.3976095,0.33667946,-1.2367808
to	-0.31876087,-0.6160546,3.0769994,-1.1480231,0.23322646,-0.32492784,1.7030697,-0.9056865,-0.0013420446,1.5951965,0.005193603,0.982592,0.33761996,0.71021336,0.22295661,-0.6505704
understand	-0.30889478,0.39536908,0.47550973,-0.22893842,-1.2765903,-0.77798337,0.905015,-0.45535815,0.25013778,-0.05871025,0.17882769,1.1307278,0.7074687,0.39317334,-0.78088427,-1.473841
