AWS	-0.9265156,-1.3464527,0.4228804,-1.2150892,0.23467356,-1.1739879,-1.1328977,-0.9569106,2.10596,0.37879777,-0.037946023,-0.03391888,0.68018514,0.30610958,-2.1619046,-0.33662605,-0.7790176,0.89416635,-0.30174357,-0.70098436,-0.10024638,0.36279505,-1.0385224,1.1123047,-0.9234704,0.51605445,1.1570523,0.87849,0.39204475,-1.9487276,-0.41073406,1.3144312
SageMaker	0.8942615,0.08697183,0.2924964,1.8564955,-0.8140887,0.308488,-2.7474773,-0.29127607,0.44345236,0.30352265,1.4254895,0.24720229,1.1860656,-0.14306936,0.42813465,-1.88591,0.29642215,-0.48190916,-1.3182946,-1.7935654,-0.66516656,-0.87143856,-1.0070829,-1.0734382,0.9233089,-1.2993453,0.4635696,-1.8387958,-0.32993683,0.57996565,1.4039822,-0.98512864
-	-0.6032676,0.72738296,-0.44731286,-1.7306114,1.3114424,-1.1946638,0.21296307,0.16557318,-0.2406133,-0.37071678,0.42548242,0.24270879,-0.95734334,1.2417907,0.2552399,0.6353965,1.1614168,2.2203755,1.70842,-0.3299238,1.4635814,-0.6808775,0.12941667,1.0251596,-0.14217187,-0.76493067,1.5500203,1.8410976,-0.74676037,-2.0878706,0.61787826,0.24420847
XGBoost	1.7209147,1.4974864,-2.141597,-1.0548931,0.25898558,-0.53903204,-1.5543277,-0.5003988,1.0918734,-0.16334745,0.22616807,-0.45996314,-0.67263716,0.016455729,-0.53391945,0.928526,-1.0129471,0.9411392,-1.6311686,1.1989594,-0.37765807,0.8363671,-0.06697723,-0.44129577,-0.1854821,1.7990526,1.1292375,0.6391185,-0.68882644,0.67147994,-0.5168645,-0.060221627
Content	-0.4591349,-1.8567644,1.5774491,0.99881613,-0.16680738,0.06552183,-0.517853,0.77977276,-0.46833673,0.30663666,-0.43231243,2.2237487,0.6414611,0.22748172,0.40791896,0.4828801,-0.6991468,-0.338524,2.0181694,-0.8029302,-0.21908419,-0.32559705,-0.254958,0.24821657,-0.37787622,-0.050811272,0.8682411,-2.6931288,0.8439726,1.6142424,-0.44167423,-0.4385818
Prepared	0.2672193,-1.3926088,1.2937882,-0.21334748,0.22253338,-1.2809529,0.5680039,-0.15373954,1.1148777,2.0118165,-1.350864,-0.7100622,0.7283821,-1.1534038,0.4898506,1.1143805,-1.0614328,-1.4218029,-1.4500005,0.508936,0.28565776,1.1932311,1.1395185,1.3554598,2.7121794,-0.44005767,-1.5349444,1.5148919,-0.7259357,-0.24713331,-0.20418647,-0.36731148
By	-1.3211113,0.58439374,-0.41956007,0.18616594,0.20121801,0.17336969,0.2390134,1.1850634,0.17135276,1.3520625,1.5788339,-0.97966695,0.44151717,0.32755256,-1.1432791,0.32230687,-0.6946441,-1.0926663,-1.4806207,-0.014443511,-0.88698083,0.78283733,-0.026048223,0.27435347,0.8383378,0.16533041,0.5745862,-1.0726742,-0.67316127,-1.387168,-2.775329,0.7489734
Chandra	-0.5838478,0.01788711,-1.4573143,1.7001628,0.083834134,-0.60530245,-0.88543195,-0.8558543,-1.8008528,0.46683505,1.8736569,2.2322614,-0.268278,1.2383052,0.083313495,-1.1392294,1.6366451,-2.0705442,-0.76909006,0.041717328,0.48963103,-0.6106625,-0.87680924,0.40525758,0.16299728,-1.8182951,-0.5112962,-0.11171483,-0.3796025,1.2565995,-0.11530739,2.8037198
Lingam	-0.061444227,1.4965034,0.44612303,-0.34012264,-1.5999265,0.45022473,-1.9667965,0.42054033,-0.96789986,-0.20763564,-0.11449392,-0.45944926,-0.18226784,-1.7449131,-1.2149446,-1.3104645,1.8267022,-1.343598,-0.6106065,0.7854578,0.29798108,0.34485143,0.6534565,-0.26735598,-0.5411172,-0.0865662,0.56788933,0.03677446,0.74468994,-1.0234661,1.136966,0.59216166
Cloud	0.5733164,1.4991233,-1.4319009,-1.3794281,0.23836946,-0.9015035,0.24204557,-0.68201756,-0.3151523,0.80317724,0.21059938,0.3067781,-0.98858017,-0.7483194,-0.20278104,1.4629058,-1.0712346,-1.7541834,-1.0451037,-0.30152044,-0.25875568,-0.1532735,-2.1946669,2.1293185,-1.6514387,-0.62161654,-1.6885612,-1.8707677,0.16340059,0.672635,0.24029928,1.1646261
Wave	0.97837985,0.75265044,-0.012265625,0.633103,-0.98363346,0.90142363,0.62521905,0.6200588,0.4859112,0.14112797,1.3088593,0.50994307,-0.49602666,0.054849587,-1.523428,-0.9204975,0.34244576,0.7727691,0.5967941,-0.85980505,-1.1373674,0.21150902,-0.9506179,0.6581629,-0.30251673,-0.0721408,0.8640016,1.1618756,-0.15153804,-0.5605944,1.3403627,1.3852112
LLC	1.172147,0.4593341,-0.49171957,0.4135258,1.9447751,0.5562868,-0.45507404,0.07869004,-1.0415474,0.21158399,-1.799442,-1.8146888,0.5198734,0.9443355,-0.25101182,-0.029835466,0.01659917,-0.80144036,0.4107062,-0.3061117,1.3905984,1.2863208,0.6970272,-0.9201536,-0.5383376,-1.1057688,0.6701459,-0.048729893,1.4458412,3.2999942,0.929905,-0.43087858
Copyright	0.25941887,0.20144777,-0.86993927,-0.55080366,-0.72650814,-0.08693921,1.3693702,-0.38237256,0.86685395,0.2360712,0.20706147,0.56202966,-1.7704777,-1.5852582,-0.29241347,0.89868414,-0.7212853,1.7079736,0.17624547,0.17844965,-1.4381669,0.3879403,-0.28331858,1.4865752,-0.4790426,-0.4908354,0.08487678,0.10434059,0.20311633,2.0160375,-0.9158925,-1.1047287
©	0.42141294,0.63751733,0.13690712,-0.33782843,-1.778826,-2.1018326,-0.78534263,-0.7262001,2.184778,-0.48463187,0.18316069,1.3815744,0.49380046,1.0192868,0.51160276,0.1501049,0.1474478,-0.41092974,0.1493732,-0.58897984,-1.0361046,1.0506629,1.1563317,0.12795913,-0.24093026,-0.6645703,-0.40003827,-1.4328492,-0.23010272,-0.93746084,-0.12879826,-0.48341376
2019	-0.4815286,-1.6312383,0.49119583,-0.5309386,-2.7163775,0.5309148,0.972415,-0.25537124,-1.099556,2.3475683,0.51208186,-0.9281439,-0.79796404,-1.5766131,0.31396884,1.2987877,-0.3973195,0.14048594,1.2686224,0.9048368,-0.48834044,0.99267083,-1.3359034,1.4916129,0.6305513,-0.94732803,-1.2460127,-0.6472003,-0.19583276,2.1320155,0.61581063,-1.251341
Cloud	0.5733164,1.4991233,-1.4319009,-1.3794281,0.23836946,-0.9015035,0.24204557,-0.68201756,-0.3151523,0.80317724,0.21059938,0.3067781,-0.98858017,-0.7483194,-0.20278104,1.4629058,-1.0712346,-1.7541834,-1.0451037,-0.30152044,-0.25875568,-0.1532735,-2.1946669,2.1293185,-1.6514387,-0.62161654,-1.6885612,-1.8707677,0.16340059,0.672635,0.24029928,1.1646261
Wave	0.97837985,0.75265044,-0.012265625,0.633103,-0.98363346,0.90142363,0.62521905,0.6200588,0.4859112,0.14112797,1.3088593,0.50994307,-0.49602666,0.054849587,-1.523428,-0.9204975,0.34244576,0.7727691,0.5967941,-0.85980505,-1.1373674,0.21150902,-0.9506179,0.6581629,-0.30251673,-0.0721408,0.8640016,1.1618756,-0.15153804,-0.5605944,1.3403627,1.3852112
LLC	1.172147,0.4593341,-0.49171957,0.4135258,1.9447751,0.5562868,-0.45507404,0.07869004,-1.0415474,0.21158399,-1.799442,-1.8146888,0.5198734,0.9443355,-0.25101182,-0.029835466,0.01659917,-0.80144036,0.4107062,-0.3061117,1.3905984,1.2863208,0.6970272,-0.9201536,-0.5383376,-1.1057688,0.6701459,-0.048729893,1.4458412,3.2999942,0.929905,-0.43087858
All	-1.421228,-1.3165259,-0.37613004,1.6868045,-0.9654002,-0.07528999,0.55023926,-0.27240455,2.1263938,0.5218889,2.523026,-1.4753916,0.48998293,1.205574,-0.9311556,2.5124414,-1.0803847,0.2906402,0.5029728,-0.76779723,0.3766843,0.24360429,1.2350438,-1.9354217,1.1472151,-0.70848125,-0.4025816,0.058188494,0.86100775,0.14989972,0.5900288,-1.1356833
Rights	-0.7113742,1.974852,-0.3780585,1.7990439,-0.4657634,0.75652206,1.6146047,-1.3264152,-0.19033052,-0.4814047,1.2608192,0.42555138,-0.85630655,0.2995696,-0.56823677,2.4815521,-1.1772677,0.5893155,0.64746094,-2.0583136,0.70829946,-0.52937144,0.03946615,-0.7934211,0.05557548,0.05617326,0.9940369,1.7935112,0.2701081,-0.2710828,-0.30645698,0.20021239
Reserved	0.46787503,-0.30013132,-0.90825766,0.23613262,0.5004424,1.8728013,0.055234533,-2.5435505,0.25334957,1.5365638,-0.37668672,-0.5495934,-1.7072572,-0.073725596,-0.99150836,0.12532929,0.4563272,-0.26297447,0.9876332,-1.4884871,-1.4362036,0.34433687,0.23182625,0.53579706,0.82693,-0.80869144,0.9219388,-1.0656881,-1.3979504,-0.609294,0.01678071,0.97032404
All	-1.421228,-1.3165259,-0.37613004,1.6868045,-0.9654002,-0.07528999,0.55023926,-0.27240455,2.1263938,0.5218889,2.523026,-1.4753916,0.48998293,1.205574,-0.9311556,2.5124414,-1.0803847,0.2906402,0.5029728,-0.76779723,0.3766843,0.24360429,1.2350438,-1.9354217,1.1472151,-0.70848125,-0.4025816,0.058188494,0.86100775,0.14989972,0.5900288,-1.1356833
other	1.356259,-1.4082316,1.4241494,-1.2396802,-0.64369994,0.37591034,-0.6114218,-0.64939547,2.1452415,0.09805581,-1.1511838,0.68154556,0.13303843,1.5461347,0.6525304,-0.04705477,0.44592997,0.14282255,-0.6369165,-0.06415867,-0.94236183,-1.462028,-2.2689834,-0.9238413,0.24738054,-0.34895718,1.2019781,0.6294292,1.48189,-0.19106844,-0.65410316,-0.45489675
registered	0.2997238,0.1362705,-0.5991773,-0.9575639,-0.45521212,0.5147355,0.29241458,-0.15949237,-1.6518236,1.1954118,-0.45519367,-0.2576706,1.1025503,-1.0843852,0.76128715,1.0180954,-1.9185742,1.1842865,0.0119500095,1.2084452,0.49292892,-0.3469483,1.3140289,0.24431626,0.6349165,-0.61407036,0.8393359,-0.12480935,-1.1942552,-0.061725054,0.57339495,-1.0756521
trademarks	1.1580302,-0.4051795,0.5438771,0.6147634,-0.6293867,0.47325873,-0.5362108,0.6792557,0.10819719,1.4020877,1.1820122,-1.2722317,0.16093443,-1.2249253,-0.57966775,2.0679448,3.1568637,-0.5097392,-1.2086841,0.23969424,0.8755406,-0.771534,2.2644854,1.5464244,2.023857,0.38320485,-0.5122332,-0.58674943,-0.59242594,-0.8080838,0.73164755,2.6393871
and/or	0.5606745,0.10266102,1.097959,-1.5953994,1.0921698,-0.9471006,0.6495398,2.1132581,-1.5910325,0.65950316,1.6446801,1.2830094,-2.645538,-1.3378854,-1.5472195,-0.09727434,1.4855562,0.08775778,-1.2053348,-1.1159565,0.026055967,0.97275543,-0.013610367,-0.019481216,-1.9129262,-1.4977869,-1.0016692,1.5637625,0.9636577,0.27062958,0.808376,1.999417
copyright	0.9316733,0.62136316,-0.85818964,1.4090648,-0.15516205,-0.1174367,-1.481521,0.92069703,0.7942483,-0.10639552,-2.53767,1.8480929,0.15903029,0.7567804,1.0586694,0.62231904,-0.29345214,-0.3280824,0.42483613,0.6137679,-1.0884142,-1.2676747,0.8390527,-0.9648821,0.21345167,0.024536438,-1.0241982,-0.8121252,0.18354832,-1.2269596,0.40048218,0.15009573
material	0.2991603,-0.11758339,-0.14282276,-0.41209063,-0.6127048,2.5062325,0.3383707,-0.9257785,2.0215085,0.5112829,2.780184,-0.4558628,0.46402174,0.00034472952,1.0973189,1.0577909,-0.90338826,0.47337708,0.29609773,1.5617242,-0.31130943,1.1962364,-1.9578178,-0.42067683,1.223998,-3.0725644,-0.16643852,-0.62206745,1.0059726,0.30796173,0.46817794,-0.6545736
are	0.041454773,0.27195808,0.44929126,-0.08667709,0.45965752,-0.2780005,0.6312975,0.5505109,-1.2799296,-0.34099835,0.21666911,-0.4713041,-0.96235204,-0.6029649,1.1169773,-1.5155523,1.3872688,0.8663149,-0.9308837,0.8610768,1.1088307,0.61437756,-0.82477427,-0.9547969,0.197127,0.7076093,1.7673831,0.34811613,-0.61973846,-0.8586,1.5545807,1.2153556
of	-1.1543951,0.5323426,-0.72937834,-0.5781622,0.09573415,0.46352723,-0.7985465,-1.3955536,-0.945969,0.6599864,0.30288354,0.8063087,-0.17170422,0.6964959,-0.59550077,0.5424483,0.7088003,-0.5315791,-1.629192,2.4042554,-1.8792796,0.38555098,-1.4183311,1.0970758,-0.7336496,-0.26510164,1.3052996,0.65897024,1.705118,-1.090631,0.48269084,0.45393398
their	-0.32788843,0.30432963,-0.050361518,0.10403581,0.3945133,-1.3976147,1.2080597,2.0596454,0.15733153,-0.652779,0.7589961,-0.12893417,-0.61396587,0.33590987,0.46713534,-0.389802,-0.081450716,1.1177053,-0.43698394,-0.27644548,-0.08474574,0.7303907,1.6155467,0.5799634,0.27103838,-1.097918,-1.4853932,-0.82631767,0.09475183,0.71229786,-0.7287855,-1.8198594
respective	-0.2110355,2.0808592,0.8447109,-0.4865698,0.17621349,-1.5466983,-0.07785313,-0.39338475,1.2793682,-1.1850932,0.2234689,1.1650081,-1.038047,1.3569485,0.04682935,-1.1697488,-1.7436578,-0.32082015,0.22996025,-2.2053268,0.16272204,-2.3505907,0.5946903,-0.9249237,0.85129917,-0.21480455,1.0213587,-0.22469637,-0.037117913,-0.25025934,0.69160813,-0.03107942
owners	-1.675563,-0.17307791,-0.08428328,-0.4592508,1.3118885,-0.77489,0.60628694,-0.22323039,-1.1004491,-0.4520685,-0.8745091,-1.2847636,-1.5701964,-1.0953879,-1.1983361,-0.58009243,0.86880493,0.020975452,-0.27608424,0.38991493,-1.4593003,-0.3523124,1.5213554,-1.8033224,0.7272755,0.55950046,-0.022854457,-1.3587866,-0.6465573,1.6433061,2.2136014,-1.7883866
Algorithms	0.62131214,1.8929864,0.4315898,-0.2628838,-1.4230754,1.1713903,0.8027907,-0.30924398,1.1497655,1.1456006,0.20639257,1.1213404,0.54566133,-0.37984926,0.29527995,-0.3598003,0.54341185,0.10424527,1.6516954,1.0193818,-0.7672383,-1.6068677,0.53483814,0.6336691,1.6931217,0.12404248,1.7574681,-0.48709512,-0.8581914,0.34985113,0.9113936,2.5383754
Overview	-1.5259693,0.030253226,0.25165763,-1.2104702,-0.25550926,1.7198585,1.019262,1.4354627,1.2658197,-1.5017612,0.035323843,-0.59098685,-0.30603886,1.015254,0.361317,1.5126485,-1.8548715,2.3921347,-0.26932448,-1.5991257,-1.3243961,-1.6993783,1.2135283,0.07928017,0.63478744,1.4527028,-0.89857936,0.40441677,1.0952699,0.1613074,-0.60310006,1.7835151
Algorithm	1.5904406,-0.0906018,0.7019368,1.8190999,0.8160807,1.4596189,-0.33867085,0.27440092,-0.84097123,-1.2143915,0.7279767,1.4240818,-1.237679,-2.1315289,0.16488066,0.76920396,-0.5434311,-2.3347008,0.7497912,0.7010869,0.7820069,-0.10410914,0.44910082,1.1350024,0.61573523,1.1022753,-0.15982866,-0.11314985,-0.57140946,0.7322009,-0.77528554,0.89140564
Description	-1.5602969,0.34696856,-2.4872427,2.4183307,-0.9687199,0.888088,1.0689625,1.4554589,0.26180115,1.4711773,1.5657032,-0.8886919,1.004717,-0.6363742,1.9051039,1.0847641,-0.997991,-1.2634069,-0.26837474,-0.20633097,-0.037872847,0.0754003,1.7589089,0.7533307,-0.14728867,1.4691153,0.7405965,-0.2775587,-0.804932,-0.4697314,-0.63959503,-0.25738752
Linear	-1.3842772,-0.30851445,-0.15507986,0.55926543,2.4140186,-0.15924284,0.9258018,-1.9181634,0.18240698,0.03285966,0.6784193,0.4900918,0.5128614,0.48554534,-2.2128847,-2.4446745,-1.097112,-1.1879358,2.2033958,-1.200832,1.3809271,0.027754165,0.63571686,0.22195768,0.9676867,0.09505336,1.0938385,0.13533936,-0.5582507,-0.7620473,1.9668084,0.22554803
Models	-0.49121788,0.89262545,-0.6808683,1.1049668,-1.1562428,1.0104005,1.0427979,0.03909844,-0.08891605,0.48689616,-1.3841866,0.75902903,-0.86945075,0.74390465,-1.6917276,-0.19889759,-1.8950707,1.1087286,-0.09754372,-1.4707167,0.67524064,-1.1908878,0.72616845,0.72676355,-0.51838166,1.0138217,-2.1953166,1.538752,-1.0482275,-0.42408752,-0.05177642,-0.83811533
+	-0.9332373,0.8636745,0.6289381,-0.29879388,-0.4652389,-1.3734646,0.045321852,-1.0413575,1.0022599,0.7535935,0.5396597,1.1346436,0.6752649,-1.0084757,-1.7110065,0.49838448,-0.10443265,0.53344184,1.4941142,0.77040434,0.0052295644,-0.010876838,0.0004282849,-1.5239295,-0.68401045,1.3453152,0.450155,-0.20666856,1.2461604,0.45753077,-1.0939538,-1.3157818
Simple	0.78029525,-1.1959801,-1.4591082,-0.15857577,-0.4291412,-1.6149088,-1.2732519,0.65241545,-0.7478925,0.8135736,-0.14546199,-0.8986305,0.8471212,0.12355274,-0.5797912,0.968641,-1.8822008,1.9885883,1.6129628,-0.8815797,-0.92085516,0.9090492,-0.7939595,-0.32703736,1.075073,-1.7680047,1.918483,-0.014259075,-0.23784384,1.2191838,-0.5266744,-0.6830228
and	0.9394328,1.8381343,0.20330572,0.40107068,-0.0094795395,-0.00019930331,-1.3009421,-0.5101325,-0.97718793,-0.2619965,0.8134755,0.113497354,0.9108733,0.041878313,-3.0347805,-0.77579355,0.19435252,0.59438604,-0.5089339,0.8904268,-0.59605247,0.9271805,-0.050873917,2.142801,1.1831903,0.17777616,-1.0350556,1.0704616,-0.62522984,0.97152853,0.9908251,-0.72782505
easy	0.88604385,-1.0095941,-1.0849328,1.5502237,0.67060685,-0.8097793,-1.1770606,-1.2097738,-0.59131557,0.56278014,-1.0735158,0.09115535,1.3307679,0.1433366,-0.38291478,0.11792506,-2.0521944,0.5236903,1.2756014,-0.3689906,0.4241515,0.60628986,-0.14201061,-0.3798279,0.3949127,-0.7361798,-0.1945238,-0.44042516,0.22387908,0.41760045,-0.30546883,0.1457545
to	-0.31876087,-0.6160546,3.0769994,-1.1480231,0.23322646,-0.32492784,1.7030697,-0.9056865,-0.0013420446,1.5951965,0.005193603,0.982592,0.33761996,0.71021336,0.22295661,-0.6505704,1.7040058,0.2869981,1.5619313,-0.3390971,-1.6018505,-0.22068673,-0.66721725,-0.27448058,-1.9984697,-0.24506088,1.1123813,0.62949735,-0.5264595,1.7840291,1.0136654,0.55604404
understand	-0.30889478,0.39536908,0.47550973,-0.22893842,-1.2765903,-0.77798337,0.905015,-0.45535815,0.25013778,-0.05871025,0.17882769,1.1307278,0.7074687,0.39317334,-0.78088427,-1.473841,-0.5729262,-0.19374111,-1.8518051,0.6304045,1.6527472,0.99276346,0.080214456,-1.4529568,0.124647684,0.497992,0.6649948,-0.580936,-0.077016555,0.8260734,1.886352,0.7643598
+	-0.9332373,0.8636745,0.6289381,-0.29879388,-0.4652389,-1.3734646,0.045321852,-1.0413575,1.0022599,0.7535935,0.5396597,1.1346436,0.6752649,-1.0084757,-1.7110065,0.49838448,-0.10443265,0.53344184,1.4941142,0.77040434,0.0052295644,-0.010876838,0.0004282849,-1.5239295,-0.68401045,1.3453152,0.450155,-0.20666856,1.2461604,0.45753077,-1.0939538,-1.3157818
Performs	1.1128837,-0.87142587,0.9391919,1.1400151,1.7466671,-1.0155264,2.304127,-0.9802421,1.7153442,1.8592402,0.55466366,-1.0347493,-0.6846578,1.7382811,-1.2986473,-1.2148212,0.44062054,0.70069003,-1.1053084,-1.5571018,0.96157,-0.81191415,0.04870324,0.053182133,0.9420907,-1.6030986,-1.1202936,-0.34210762,-0.19092464,0.12598892,1.4169358,-0.5615251
surprisingly	-1.1052556,-0.49874696,0.06500091,0.8298979,0.8870863,-1.1536845,0.6216603,0.46943453,0.12087727,0.74300086,0.5387751,0.34738573,-0.4852209,0.45357373,-0.14403664,1.8992529,0.4512289,-1.8969291,0.21437442,-0.9083893,0.6250076,-2.5577416,2.1955538,-0.39553827,0.06990569,-0.26883483,0.7020063,-0.5764216,-0.58462644,1.5781194,0.8063682,1.4465991
well	0.7196645,0.2632348,-0.65965307,1.2579855,0.7316763,0.13205184,-1.8988962,-1.252021,-1.2716521,2.3964963,1.1003152,-0.47652367,0.70668316,1.0185173,0.37033793,-1.0819006,-1.0646865,1.2277961,1.0341624,0.07621133,1.0449777,-1.6484556,-0.8582283,1.4946423,-1.0186327,1.0305437,-0.33637315,0.1848557,-0.38968232,-0.22837634,0.14024578,2.4243097
for	-0.086303964,-0.3658368,0.6136887,0.8804669,0.1478771,-0.15671529,-1.0283278,0.43290263,0.3243379,1.9749067,-0.2799996,0.76150113,-0.7524098,0.040565647,-0.5790191,0.9114611,-0.042494204,-0.27091068,0.4027242,1.501045,0.16927198,0.11905443,0.5136531,-0.46507847,-0.059886776,1.1937734,-1.3232927,0.32602888,0.5302832,-0.98611456,1.0795993,-1.5683954
a	-1.6066637,0.0580928,1.1171691,0.39173314,-0.5625808,0.0313971,-0.25304902,-1.482868,1.124479,-1.0541166,-0.14859545,-0.6418046,-0.21723457,1.2620081,-0.53165996,-1.3156325,-0.256877,1.3783869,1.9690439,-1.9459618,-0.022474453,-1.2202857,0.047906827,-0.12180264,0.7857194,2.3364713,-0.30790558,0.30679858,-0.7800444,1.715903,-0.9734772,0.7401206
variety	-0.21706147,0.16992265,1.81914,1.9380425,-0.9513532,-0.07133886,1.0575179,1.3955795,-0.34123135,0.9356297,-0.3866614,-0.09433533,-2.4410381,0.7998185,-0.41977823,0.33046463,-0.6348523,-1.031126,0.19040385,-0.5161504,-0.74046403,-0.99649495,-0.64733315,0.22025391,-0.32575136,1.0594808,0.42481905,-0.04882521,-1.5671341,0.76023316,0.55269367,0.25558737
of	-1.1543951,0.5323426,-0.72937834,-0.5781622,0.09573415,0.46352723,-0.7985465,-1.3955536,-0.945969,0.6599864,0.30288354,0.8063087,-0.17170422,0.6964959,-0.59550077,0.5424483,0.7088003,-0.5315791,-1.629192,2.4042554,-1.8792796,0.38555098,-1.4183311,1.0970758,-0.7336496,-0.26510164,1.3052996,0.65897024,1.705118,-1.090631,0.48269084,0.45393398
problems	-0.3322181,0.22980921,0.91102135,-0.7778513,-0.107120715,-0.93744683,0.30315855,2.2061715,-0.62223786,1.6020731,-0.083959006,-0.5023402,0.038092304,0.950779,1.1022705,0.34894782,0.8824667,1.1876124,2.1920662,0.31041613,1.6317878,0.18902571,0.16106673,1.1785879,1.1372727,0.5926873,-0.3119024,0.109921016,-1.46614,0.5936044,2.0646715,-1.3143195
-	-0.6032676,0.72738296,-0.44731286,-1.7306114,1.3114424,-1.1946638,0.21296307,0.16557318,-0.2406133,-0.37071678,0.42548242,0.24270879,-0.95734334,1.2417907,0.2552399,0.6353965,1.1614168,2.2203755,1.70842,-0.3299238,1.4635814,-0.6808775,0.12941667,1.0251596,-0.14217187,-0.76493067,1.5500203,1.8410976,-0.74676037,-2.0878706,0.61787826,0.24420847
Difficulty	0.15564273,0.23582922,0.007455036,0.583988,-0.13874984,1.1560013,0.5597692,0.27567133,0.8098067,0.7582822,0.8068061,-0.20004836,0.32804462,0.21842709,1.269875,-0.59438014,-0.11238426,-1.16842,-0.94840306,-0.79125077,1.2095699,1.370735,-1.2535899,-1.2176586,0.15622891,-1.0614443,0.35788387,-0.14367466,-0.5309218,1.5531377,-0.8250897,0.2912357
handling	0.28406265,-0.74584186,-0.07458016,1.0263579,0.11321266,0.47578368,-1.5046216,2.0208642,1.1442578,-2.2620609,0.91724163,-1.1722648,0.65708995,1.0314915,-0.59649163,-0.53429306,1.0566399,1.2353266,-1.3500509,1.0309684,0.43982938,-0.88358545,-0.38537776,-0.89572954,0.71039695,0.3694609,-0.5861377,0.9110992,-0.7269239,1.0945902,-0.1508769,0.5321611
non-linear	-0.25858903,0.33467704,-1.1747985,1.0219454,0.023089625,0.6129964,2.265606,0.18009803,-0.79193896,-0.2298897,0.5917119,3.7946126,0.52040833,-0.17602506,-0.013411748,1.5585521,-0.44152254,0.17654987,0.5362068,-0.44286668,-0.40376496,0.6643017,0.43646517,-0.7099718,-1.0366335,-0.17962554,-0.2179252,1.6674044,-0.15994528,2.5139935,0.17823909,0.11582594
datasets	-0.013493993,-1.4794996,-0.663204,-1.818966,0.106565215,-2.9289482,-1.1630702,0.024869503,0.5084501,0.49299526,0.96188974,0.32477802,0.29211742,-0.5645532,0.5733119,0.55111927,-1.4297314,0.96062404,0.2489041,-0.9540837,-0.66823405,-1.381114,-0.6675541,0.05038295,0.31206757,0.20029037,0.28824672,-0.6089396,0.67122144,-0.3217296,-0.9230845,0.1946277
-	-0.6032676,0.72738296,-0.44731286,-1.7306114,1.3114424,-1.1946638,0.21296307,0.16557318,-0.2406133,-0.37071678,0.42548242,0.24270879,-0.95734334,1.2417907,0.2552399,0.6353965,1.1614168,2.2203755,1.70842,-0.3299238,1.4635814,-0.6808775,0.12941667,1.0251596,-0.14217187,-0.76493067,1.5500203,1.8410976,-0.74676037,-2.0878706,0.61787826,0.24420847
Features	-1.4639693,1.5967968,-0.29380363,2.5638974,0.015007392,-1.3681613,-0.47521433,-0.65777725,0.28209174,-0.008035336,-0.73237336,0.6097315,-0.57173145,-0.9778655,-0.04991462,0.024969112,0.98151904,-0.029799063,2.024697,1.667138,0.095271304,-0.80873203,-1.4362638,1.152774,2.5859988,2.2491882,1.3478779,0.14030786,-0.16962315,-1.8624451,-0.01024911,0.53961813
on	-0.6507311,-0.16122137,-0.3498972,1.6777656,0.5849124,0.19891821,-0.32517108,-0.67510206,-0.12596844,0.59609556,0.2736328,-0.62248963,1.2476046,0.31493497,1.951331,-0.91016865,-0.0421107,-1.1595051,0.73554575,-0.25006208,0.09522082,-0.3708784,0.10129771,0.049566627,-0.47173825,0.49700513,-0.94926363,-0.6619619,2.4627192,0.68459433,-0.10665156,1.0163835
similar	0.41330823,0.31056544,-1.474925,1.345146,0.23692559,-0.94504255,-1.7576449,-0.24335043,-0.9228552,0.45566782,-0.98103756,0.17789136,0.22861521,-0.33859974,1.088736,-0.37917826,0.14223152,-0.07752326,0.67593807,-1.2544171,-0.058446106,-1.2320546,-1.6052165,1.1128879,0.8759033,0.9070088,0.898779,-0.25299585,-0.14978974,1.0037571,-0.23717678,0.46360078
scale	-0.05720602,-1.0408196,-0.3878924,0.29447502,-1.9552317,2.0472252,0.89683354,-0.7140868,1.0929856,0.60583943,-1.9662039,0.5378284,0.091749705,0.93287694,-1.1491437,-0.3510784,-0.013636735,-0.81281203,-0.087581456,0.7289231,0.37346613,2.112687,-0.02416913,-0.014504096,-1.9014535,-0.29938006,0.028813671,-0.7424236,-1.4961236,0.3804641,-2.1351063,0.3344241
one-hot	-1.0304508,-0.61486125,1.8448024,0.42245394,0.67092353,-1.020597,-1.4941589,0.12969162,0.9409536,-0.38970575,2.1310642,-0.6020538,0.13136636,-1.6822716,0.38040257,0.017290387,0.564237,2.9333105,0.17834857,-1.4185722,-0.87364626,1.3241637,0.9080853,-1.8786231,0.088446036,-2.6063945,-0.92631507,-1.271092,0.6982289,1.3884885,0.5861951,-0.9707355
encoding	-1.3766441,-1.2856951,1.6212683,2.173908,-0.91413844,-0.84901774,-1.365718,0.543387,-0.6294854,0.017304525,0.15405142,-0.7129698,0.22239551,1.0278257,-1.1041031,1.5357164,0.25245473,-0.6791419,-0.83997935,-1.1658611,-1.182293,0.025263432,-0.23185098,-0.96386296,0.40531147,-0.5490386,0.9685627,-0.8302723,-1.6752248,0.020358387,-2.6467166,1.0687082
complex	-1.6591827,-0.8392674,-0.28242478,0.6990381,-0.13086869,1.0108765,0.030997379,0.09633782,-1.3318905,0.80133855,0.4886889,0.10743856,1.1105051,-1.3976095,0.33667946,-1.2367808,1.8966482,-0.028229525,-0.010478917,-0.743047,-1.5632199,-0.36172733,1.4168153,-1.4578825,0.5529408,0.5040385,-0.01358649,1.9848707,-1.4271147,0.5739423,-0.29185253,0.13254961
features	0.37929377,-0.02723732,0.10952609,0.92964727,1.2866434,0.4788974,0.065978035,0.24311799,-0.0018107225,-2.6209974,0.87475836,0.5309242,-2.3067489,-0.86612725,-1.0754594,-2.125638,0.40403375,-0.26755056,-0.08637201,2.0410025,1.519361,1.9808412,-0.22738971,0.5511476,2.1055846,0.35848668,-2.587142,-1.0987508,1.0552505,0.30499056,-0.24178,-0.74381727
Decision	-0.0027814726,-0.7373154,0.44509608,0.0679907,2.099261,-0.14730021,-0.92997473,-0.48638016,0.2866282,-1.1724762,1.8800117,-0.8945754,0.43802547,1.2214899,-1.119722,-0.40809458,-0.4552794,-1.3937964,0.35849506,1.4547702,-0.63751364,-0.10256731,0.91639507,0.37578216,-0.8214007,-0.7800982,-0.91278076,0.25562096,-0.42354164,-0.46342,0.64946336,-0.3077251
Tree	-0.16604823,-1.6678529,-0.17414507,0.38074818,-0.3786433,0.8808636,0.20316121,0.5675136,0.42943496,-0.3607679,0.21934332,0.4486206,-1.6282676,-0.45046774,1.7127888,0.26871207,0.44234812,-0.91000485,0.252093,1.2474151,2.0928047,2.8680623,0.028622292,0.18039122,1.6878945,-0.25640228,-0.761741,0.75818604,-0.81218976,-0.95678765,0.35968494,3.2000065
+	-0.9332373,0.8636745,0.6289381,-0.29879388,-0.4652389,-1.3734646,0.045321852,-1.0413575,1.0022599,0.7535935,0.5396597,1.1346436,0.6752649,-1.0084757,-1.7110065,0.49838448,-0.10443265,0.53344184,1.4941142,0.77040434,0.0052295644,-0.010876838,0.0004282849,-1.5239295,-0.68401045,1.3453152,0.450155,-0.20666856,1.2461604,0.45753077,-1.0939538,-1.3157818
Can	-0.5001491,-0.6146897,-0.15179388,-0.5929483,-0.78486145,1.4656695,-0.36647868,-0.69801164,0.16712698,-0.29392713,0.29688227,-0.41516206,-0.34154138,-0.2981471,-0.9061808,2.140124,0.49206352,-1.1043574,0.985858,-1.7538476,0.53605473,-0.42389143,-0.32315713,-1.2807128,-0.37634465,-1.2849227,0.98392093,2.235222,-0.34386224,-1.4621527,0.6440582,-0.34873787
Handle	1.5165384,1.7475836,0.6739954,1.4871312,0.42212614,0.92802083,-0.61937565,0.2541782,3.669942,-0.25338316,0.7609576,0.02215561,1.5400597,0.6405545,0.25885636,0.09555554,1.4946313,0.13356955,0.78235704,-0.88417196,-1.4452227,1.0360578,-0.09343178,-0.073795006,-1.584952,-0.3298484,-0.9136378,0.8463945,1.0223755,2.1082923,-0.3269011,-1.4463577
Complex	0.33387905,1.3814338,-0.18078506,-0.286427,-0.84301066,-0.5703372,0.34432483,-1.3661206,0.7996043,-0.5629391,-0.6064949,-1.7382325,0.28529602,-0.30136788,-0.9712434,-1.1233187,-1.4494708,1.7092566,0.85231423,-0.119755514,-0.8916596,-0.7636218,1.636635,-0.65196115,-1.8289223,-0.16940522,0.28580886,-0.02420439,-0.54886353,-1.9781762,0.40577096,1.4647865
non-linear	-0.25858903,0.33467704,-1.1747985,1.0219454,0.023089625,0.6129964,2.265606,0.18009803,-0.79193896,-0.2298897,0.5917119,3.7946126,0.52040833,-0.17602506,-0.013411748,1.5585521,-0.44152254,0.17654987,0.5362068,-0.44286668,-0.40376496,0.6643017,0.43646517,-0.7099718,-1.0366335,-0.17962554,-0.2179252,1.6674044,-0.15994528,2.5139935,0.17823909,0.11582594
relationship	-1.5013729,-0.5200669,-0.7400031,-0.9704724,-1.8458723,-1.9732894,-1.0597446,0.74028325,-0.13469617,0.874328,-0.49387503,0.048848957,0.4418592,0.80570364,-1.5711629,0.023975108,1.1586097,-0.64252275,-0.21880487,-0.17712218,0.214621,0.8777449,0.72561073,0.40801972,1.3045663,1.7656482,-0.37462375,1.0581963,0.0896991,-0.7032095,1.0492235,0.6775695
+	-0.9332373,0.8636745,0.6289381,-0.29879388,-0.4652389,-1.3734646,0.045321852,-1.0413575,1.0022599,0.7535935,0.5396597,1.1346436,0.6752649,-1.0084757,-1.7110065,0.49838448,-0.10443265,0.53344184,1.4941142,0.77040434,0.0052295644,-0.010876838,0.0004282849,-1.5239295,-0.68401045,1.3453152,0.450155,-0.20666856,1.2461604,0.45753077,-1.0939538,-1.3157818
Easily	-1.079708,1.4987254,-1.1141002,-0.8061066,0.5018655,0.6881784,0.15485497,-0.99452645,-0.6550653,-0.79569995,0.16785014,-1.3385599,0.55579454,0.7929739,0.54378664,-2.411466,-2.7253628,-1.019804,0.40325022,-1.7422917,0.725966,0.7263381,0.05971703,1.1987661,-1.6405265,-2.1334343,-0.32373345,-0.2955352,1.4336766,0.43035018,-1.4686534,-0.96219254
handles	0.5185902,0.5577035,-0.97582364,-1.2620972,0.9790963,-2.0160835,-1.017492,-0.965599,-1.4043788,-1.6179616,0.10242035,-1.3949082,-0.22430056,-1.2891572,1.2535539,0.76499635,-0.8775633,1.3823775,-1.1627796,0.5409214,0.8473075,0.503267,-1.0744265,-0.24090055,-0.05395837,-2.5335152,-0.6749086,0.4454154,-0.9307357,0.43341056,-0.09052314,1.497829
numeric	-0.7123236,1.3966317,1.4380407,-0.98187405,-0.29565135,0.27600613,-0.18496093,-0.57008827,-0.9988046,0.44889954,0.6171942,0.48864034,-0.59387904,-0.4128209,1.2341497,-0.3020916,-0.16021281,-2.540897,0.4708497,0.60478777,0.8120647,1.2688148,1.8897053,2.1577227,0.045279108,0.76149845,0.6184908,-0.76506084,-0.51367563,0.39747167,0.80042475,-0.29062033
categorical	-0.37789384,0.19318086,0.5240513,1.4722883,0.061446317,-1.215056,-0.691239,0.4995689,-0.15221526,-0.15035069,-1.7654401,1.0543516,-0.7113193,-0.74657404,0.85863644,0.73897153,2.614149,0.36718324,0.72152764,1.0204221,-0.19350784,-2.983614,2.0068223,0.79765433,-1.0105475,-0.43573436,0.62793696,0.6540144,-0.08701842,-0.92667973,-0.23712218,-0.61814153
data	0.06164984,-0.08711081,0.16195874,1.0261813,-1.0675511,1.0544444,1.1531801,0.0038696416,0.32538614,-1.2968304,-0.6126964,0.07826964,-1.4148175,0.410566,-0.67373955,-0.22464585,0.40272352,0.64640045,0.34757352,0.17952324,1.6240348,0.89949214,-0.16627777,1.2790343,-0.46924955,-0.20507161,-0.32149145,0.54138273,-0.9865686,0.61669964,0.49357614,-0.16993661
missing	1.0965718,-1.1621689,0.6221003,-0.89709,0.23080017,-1.4537896,0.55120915,0.2515529,-0.15439446,-1.6961459,-1.3730167,0.504064,-0.8587018,0.0378258,-0.26700157,-0.44218862,-1.7908795,2.3257785,0.89254993,-0.16091569,-0.2750139,-0.02765741,1.291979,-2.267022,0.17699206,-0.8377402,-1.4768976,-0.32004857,-0.7561818,0.9819846,-1.9655879,-1.3369092
data	0.06164984,-0.08711081,0.16195874,1.0261813,-1.0675511,1.0544444,1.1531801,0.0038696416,0.32538614,-1.2968304,-0.6126964,0.07826964,-1.4148175,0.410566,-0.67373955,-0.22464585,0.40272352,0.64640045,0.34757352,0.17952324,1.6240348,0.89949214,-0.16627777,1.2790343,-0.46924955,-0.20507161,-0.32149145,0.54138273,-0.9865686,0.61669964,0.49357614,-0.16993661
-	-0.6032676,0.72738296,-0.44731286,-1.7306114,1.3114424,-1.1946638,0.21296307,0.16557318,-0.2406133,-0.37071678,0.42548242,0.24270879,-0.95734334,1.2417907,0.2552399,0.6353965,1.1614168,2.2203755,1.70842,-0.3299238,1.4635814,-0.6808775,0.12941667,1.0251596,-0.14217187,-0.76493067,1.5500203,1.8410976,-0.74676037,-2.0878706,0.61787826,0.24420847
Prone	-0.117627524,1.2582549,0.94990045,0.4421173,-1.1680254,0.0856759,-0.9536338,0.25093657,0.39124006,-1.0025462,-3.4658723,-1.097147,-0.34510714,-0.2137942,-0.9570228,-0.12327356,0.3097226,0.07288718,0.40394992,-0.74326944,0.77474254,0.021900428,0.6092544,0.893717,-0.11212858,0.093273565,0.024071032,1.2648833,-1.3444189,0.46262887,0.9615789,-0.81878567
to	-0.31876087,-0.6160546,3.0769994,-1.1480231,0.23322646,-0.32492784,1.7030697,-0.9056865,-0.0013420446,1.5951965,0.005193603,0.982592,0.33761996,0.71021336,0.22295661,-0.6505704,1.7040058,0.2869981,1.5619313,-0.3390971,-1.6018505,-0.22068673,-0.66721725,-0.27448058,-1.9984697,-0.24506088,1.1123813,0.62949735,-0.5264595,1.7840291,1.0136654,0.55604404
overfitting	-0.086696096,0.0057624565,-0.7380184,-0.17221242,-0.9743503,-0.6100839,0.3807489,-0.4620086,0.02270803,-2.4572668,-0.38330406,1.6433253,2.4854407,-0.21153335,0.22527052,0.48853546,-1.047223,-1.3414483,-0.36466342,3.4278536,0.23340856,0.28832453,0.14628951,-0.38872784,0.22111203,-0.922847,0.17013717,-0.5896539,0.82529813,0.3138535,0.6974237,-0.773662
-	-0.6032676,0.72738296,-0.44731286,-1.7306114,1.3114424,-1.1946638,0.21296307,0.16557318,-0.2406133,-0.37071678,0.42548242,0.24270879,-0.95734334,1.2417907,0.2552399,0.6353965,1.1614168,2.2203755,1.70842,-0.3299238,1.4635814,-0.6808775,0.12941667,1.0251596,-0.14217187,-0.76493067,1.5500203,1.8410976,-0.74676037,-2.0878706,0.61787826,0.24420847
Poor	-0.65536225,0.6469256,-1.0698404,0.49300313,-1.5490221,-1.3037705,0.811214,0.6460871,-0.5350162,0.13201146,0.20781045,-1.7931737,-0.049966596,-0.92409045,-0.4958918,-0.34586114,0.12237359,-1.6908535,-1.0844266,-1.0084981,-0.068953715,-0.15019146,0.4161968,1.0756229,1.9679189,0.989371,0.4116844,-2.2786703,0.9434517,-0.5252247,1.0438557,-1.2693859
predictive	-0.08767937,0.35715306,0.30772302,-0.72876567,0.154643,0.04936621,-0.29831904,-0.43283942,-1.6971903,-0.72487646,-0.3394672,-0.0063664233,0.4049016,-1.6371827,-0.21351567,-0.84655654,-1.3220438,0.059701182,-1.2724156,1.7433721,-0.97860825,-0.9234123,-0.46511927,-0.22892532,0.2270594,1.5283101,0.3371909,0.8417899,0.0052759727,-0.26094836,-0.91699946,1.0023103
accuracy	1.3083076,-0.42072433,0.08899942,-0.9661889,-0.7252654,0.9685982,0.9826078,-0.012408291,0.51274055,-1.2342426,-0.4998347,-1.0848358,-1.503807,-2.334875,0.2088084,2.0014374,-0.17098641,-0.49544436,0.03246651,0.34022453,2.043873,0.5569309,0.6553823,0.06999298,0.07819691,-0.6806638,-0.82923496,-0.74092364,-0.3417194,0.19130628,-0.7846703,-0.088402726
Ensemble	1.7159678,-0.8260141,-1.11842,0.18438633,-0.43936977,2.0964444,1.9774468,-1.1834064,-0.5991244,-0.166381,1.5260953,1.0123868,0.49840793,0.76913095,-0.48271126,-1.2473994,-0.038774133,0.63803905,-0.29349414,-1.6722981,1.0186889,0.0748754,0.55716676,1.1468508,0.37259147,0.5666982,-0.22930983,-0.9238434,-1.3434746,2.0719001,-0.5223702,0.18918625
Methods	0.9769496,-1.2494856,-1.1351035,-1.1225464,-0.5885121,-1.2327336,1.2157487,0.18194494,-0.3646752,-0.05347473,0.4290005,-0.6797207,-0.3460518,1.0638771,-0.38559973,-0.3675984,-0.91953343,1.7774003,0.48443308,0.6558889,-1.0891007,1.5408306,-0.7133807,1.5534126,-1.5732467,-0.79741496,-1.2408867,1.3518696,-1.4057411,-0.02249342,0.9312799,-0.51140064
+	-0.9332373,0.8636745,0.6289381,-0.29879388,-0.4652389,-1.3734646,0.045321852,-1.0413575,1.0022599,0.7535935,0.5396597,1.1346436,0.6752649,-1.0084757,-1.7110065,0.49838448,-0.10443265,0.53344184,1.4941142,0.77040434,0.0052295644,-0.010876838,0.0004282849,-1.5239295,-0.68401045,1.3453152,0.450155,-0.20666856,1.2461604,0.45753077,-1.0939538,-1.3157818
Combines	0.5613754,1.7714667,-1.384706,1.118831,1.3107722,0.09535866,-0.27470452,1.9379555,-0.6890577,-0.6482017,0.5130363,0.14504531,1.0448579,0.29676735,1.2755811,-0.38722113,1.8834895,0.4735554,-1.0106012,0.70328546,0.9237469,-0.8517205,1.452143,0.14605547,1.4937363,0.4499868,0.33826923,-1.1708332,0.6928056,-1.4599754,-1.5248091,-1.663511
multiple	0.4266929,-0.025606627,-0.6118692,0.74612546,-0.7572718,1.7652752,1.0259693,0.16456942,1.8116146,0.09428519,-0.27007198,-1.0311065,0.55492264,-0.72900015,-0.048790403,0.6126951,-2.1541173,-0.02598106,-1.6419988,-1.2661916,0.24593826,0.31827167,1.2279527,0.5783754,-0.17915176,-0.24508516,-0.37045178,-1.0735979,-0.024025522,-0.2515566,-1.0804814,0.36807254
simple	-0.6583659,-0.39953232,1.6025795,0.34631506,-0.8131084,0.042126875,0.50110215,-0.5746391,0.37409168,-0.9174814,0.66987294,-0.6992507,0.5929909,-0.08308466,0.3102078,-0.751946,0.2604373,-0.6141798,1.922756,-1.6662472,0.6945146,-0.60309625,1.0418111,-0.007414835,0.090388075,-1.539352,0.31025636,-0.30505094,-1.2819225,-0.5758016,0.69101614,0.71024424
decision	0.7844727,0.2700527,0.25007108,-0.62935835,-1.3131627,0.75741607,-0.02305538,-0.23744139,0.21070513,-0.3858038,1.2077371,-0.5419623,-0.079256386,0.9230746,-3.0741727,-1.2070717,-0.79527634,-0.8151176,0.21118042,0.070898354,-1.2325884,1.5868506,0.09897361,-0.6312449,1.965372,-3.1205926,-0.84663045,-1.1864169,0.56198305,-0.88160676,-1.0107689,0.8411119
trees	0.2655954,0.52797765,-0.4541508,-0.09035846,-0.89303356,0.46430618,-0.12583153,-0.38870135,0.2405712,-0.31464267,0.17080551,-0.964971,-0.47299144,-0.2149072,0.2542478,-0.26142475,-0.08974868,0.056168012,0.18404719,1.2330393,-1.9489058,-0.26136947,-0.7092741,-0.59715116,0.12998341,-1.0663519,-1.4610146,0.21248958,-0.50333816,0.76212114,0.14759964,1.1799529
+	-0.9332373,0.8636745,0.6289381,-0.29879388,-0.4652389,-1.3734646,0.045321852,-1.0413575,1.0022599,0.7535935,0.5396597,1.1346436,0.6752649,-1.0084757,-1.7110065,0.49838448,-0.10443265,0.53344184,1.4941142,0.77040434,0.0052295644,-0.010876838,0.0004282849,-1.5239295,-0.68401045,1.3453152,0.450155,-0.20666856,1.2461604,0.45753077,-1.0939538,-1.3157818
Addresses	0.34566736,-0.8776911,-0.8080119,0.12844902,0.20643006,0.41123298,-2.264582,-0.59160435,-1.3348856,0.8841427,0.6993178,-1.1922771,1.2377025,0.19788504,-0.09424181,2.1005368,2.1897633,-0.7218492,-0.25540447,1.0247277,0.26486647,0.16492832,-1.9917254,0.3731189,-1.2791766,-0.8386282,-0.33745822,0.97242105,2.1299298,1.3598346,-0.69523513,-1.4801084
decision	0.7844727,0.2700527,0.25007108,-0.62935835,-1.3131627,0.75741607,-0.02305538,-0.23744139,0.21070513,-0.3858038,1.2077371,-0.5419623,-0.079256386,0.9230746,-3.0741727,-1.2070717,-0.79527634,-0.8151176,0.21118042,0.070898354,-1.2325884,1.5868506,0.09897361,-0.6312449,1.965372,-3.1205926,-0.84663045,-1.1864169,0.56198305,-0.88160676,-1.0107689,0.8411119
tree	1.5763514,0.7044559,-0.8864789,0.854538,-1.2751852,-0.9966006,-0.5922621,0.3793449,0.729791,-0.055727523,-0.8521856,-0.11452731,0.34480152,-0.4629683,0.8268062,1.0472547,-0.45263037,-0.6554979,0.3880907,0.788934,1.3666588,-0.11280925,-0.9036666,-0.75611836,-1.4116789,-0.21224047,1.078625,1.0373862,0.9268379,1.0121721,1.2070725,1.1790152
overfitting	-0.086696096,0.0057624565,-0.7380184,-0.17221242,-0.9743503,-0.6100839,0.3807489,-0.4620086,0.02270803,-2.4572668,-0.38330406,1.6433253,2.4854407,-0.21153335,0.22527052,0.48853546,-1.047223,-1.3414483,-0.36466342,3.4278536,0.23340856,0.28832453,0.14628951,-0.38872784,0.22111203,-0.922847,0.17013717,-0.5896539,0.82529813,0.3138535,0.6974237,-0.773662
problem	0.4553972,-1.8825837,-0.043374855,1.4957328,0.8272771,-1.1794666,-2.349566,1.7511525,0.32852322,0.60429615,-0.14091976,-0.8240186,1.352344,0.5913653,0.22698079,-0.65855664,0.3565431,-0.10771036,1.1488476,1.5101687,1.527585,0.6170505,0.19023049,0.27161777,0.2846167,-1.5312493,0.7579485,-2.592897,-0.73518914,-0.50124675,-2.2555697,0.81399757
+	-0.9332373,0.8636745,0.6289381,-0.29879388,-0.4652389,-1.3734646,0.045321852,-1.0413575,1.0022599,0.7535935,0.5396597,1.1346436,0.6752649,-1.0084757,-1.7110065,0.49838448,-0.10443265,0.53344184,1.4941142,0.77040434,0.0052295644,-0.010876838,0.0004282849,-1.5239295,-0.68401045,1.3453152,0.450155,-0.20666856,1.2461604,0.45753077,-1.0939538,-1.3157818
Much	1.4933722,-0.37088498,-0.6644304,-1.1873931,1.6632997,-0.5764316,-1.641854,-0.08080171,1.204143,-0.04316557,0.33798438,1.8541261,1.876559,-0.4177487,0.4528921,1.2270328,-2.0082407,1.0123672,-0.7687023,0.37522966,-0.7732111,-0.6122775,-0.025135156,0.53379035,1.0522475,-1.6634188,-1.2902501,-0.14664192,-1.7804611,-0.596607,0.5672587,-1.8176779
better	-0.23443471,-0.06560645,1.3674097,-0.52622795,0.4247116,1.0208542,0.16217184,-0.19916922,-0.14175002,-1.2198917,-0.8491223,0.85110587,-0.76684266,0.87756085,0.05310479,-1.8894117,-0.19612484,0.816038,0.34729147,-0.16976398,-0.4532,1.8909454,-0.78950536,0.3544606,-1.0831971,-0.6541001,1.1612772,-0.9664495,1.2927594,0.6646266,-1.0125628,-1.4677202
predictive	-0.08767937,0.35715306,0.30772302,-0.72876567,0.154643,0.04936621,-0.29831904,-0.43283942,-1.6971903,-0.72487646,-0.3394672,-0.0063664233,0.4049016,-1.6371827,-0.21351567,-0.84655654,-1.3220438,0.059701182,-1.2724156,1.7433721,-0.97860825,-0.9234123,-0.46511927,-0.22892532,0.2270594,1.5283101,0.3371909,0.8417899,0.0052759727,-0.26094836,-0.91699946,1.0023103
performance	0.46724078,0.69999444,-0.100377694,0.91470927,0.49728063,-0.2564456,-0.21848072,0.626897,-0.7318461,-0.6090277,0.19104101,1.1865155,0.024786722,-1.3211719,1.4281796,-0.47189367,-0.37060836,1.1054616,-0.13012521,0.06902566,-0.014635257,-0.62854344,0.29991525,-0.4376071,1.6435183,-0.101352565,-0.16981883,1.0537581,-0.28750253,0.2516593,0.7038366,-0.2761082
-	-0.6032676,0.72738296,-0.44731286,-1.7306114,1.3114424,-1.1946638,0.21296307,0.16557318,-0.2406133,-0.37071678,0.42548242,0.24270879,-0.95734334,1.2417907,0.2552399,0.6353965,1.1614168,2.2203755,1.70842,-0.3299238,1.4635814,-0.6808775,0.12941667,1.0251596,-0.14217187,-0.76493067,1.5500203,1.8410976,-0.74676037,-2.0878706,0.61787826,0.24420847
More	0.49353305,0.04151162,0.21625975,1.4560411,0.72208595,0.38109946,-0.020195903,1.2338296,-0.32837704,0.4009551,0.33104768,-0.95526904,-1.1338096,0.027471108,-2.154741,-3.1899958,-0.4721217,0.5388939,0.39394644,-0.6909477,1.1617372,0.39740282,-1.3857901,-0.40380138,-1.2526951,0.03176025,-1.0335908,-0.46491075,0.65735674,1.2270352,0.77528965,0.7914549
complex	-1.6591827,-0.8392674,-0.28242478,0.6990381,-0.13086869,1.0108765,0.030997379,0.09633782,-1.3318905,0.80133855,0.4886889,0.10743856,1.1105051,-1.3976095,0.33667946,-1.2367808,1.8966482,-0.028229525,-0.010478917,-0.743047,-1.5632199,-0.36172733,1.4168153,-1.4578825,0.5529408,0.5040385,-0.01358649,1.9848707,-1.4271147,0.5739423,-0.29185253,0.13254961
to	-0.31876087,-0.6160546,3.0769994,-1.1480231,0.23322646,-0.32492784,1.7030697,-0.9056865,-0.0013420446,1.5951965,0.005193603,0.982592,0.33761996,0.71021336,0.22295661,-0.6505704,1.7040058,0.2869981,1.5619313,-0.3390971,-1.6018505,-0.22068673,-0.66721725,-0.27448058,-1.9984697,-0.24506088,1.1123813,0.62949735,-0.5264595,1.7840291,1.0136654,0.55604404
understand	-0.30889478,0.39536908,0.47550973,-0.22893842,-1.2765903,-0.77798337,0.905015,-0.45535815,0.25013778,-0.05871025,0.17882769,1.1307278,0.7074687,0.39317334,-0.78088427,-1.473841,-0.5729262,-0.19374111,-1.8518051,0.6304045,1.6527472,0.99276346,0.080214456,-1.4529568,0.124647684,0.497992,0.6649948,-0.580936,-0.077016555,0.8260734,1.886352,0.7643598
